{"learner":{"attributes":{"best_iteration":"19","best_ntree_limit":"20","best_score":"0.8786888492770846","scikit_learn":"{\"use_label_encoder\": false, \"n_estimators\": 100, \"objective\": \"binary:logistic\", \"max_depth\": 2, \"max_leaves\": null, \"max_bin\": null, \"grow_policy\": null, \"learning_rate\": null, \"verbosity\": null, \"booster\": null, \"tree_method\": null, \"gamma\": null, \"min_child_weight\": null, \"max_delta_step\": null, \"subsample\": null, \"sampling_method\": null, \"colsample_bytree\": null, \"colsample_bylevel\": null, \"colsample_bynode\": null, \"reg_alpha\": null, \"reg_lambda\": null, \"scale_pos_weight\": null, \"base_score\": null, \"missing\": NaN, \"num_parallel_tree\": null, \"random_state\": null, \"n_jobs\": null, \"monotone_constraints\": null, \"interaction_constraints\": null, \"importance_type\": null, \"gpu_id\": null, \"validate_parameters\": null, \"predictor\": null, \"enable_categorical\": false, \"max_cat_to_onehot\": null, \"eval_metric\": [\"error\", \"logloss\", \"auc\"], \"early_stopping_rounds\": 5, \"callbacks\": null, \"classes_\": [0, 1], \"n_classes_\": 2, \"evals_result_\": {\"validation_0\": {\"error\": [0.20973154362416108, 0.21644295302013422, 0.2080536912751678, 0.21644295302013422, 0.2080536912751678, 0.21644295302013422, 0.18624161073825504, 0.18624161073825504, 0.18120805369127516, 0.17114093959731544, 0.1644295302013423, 0.1644295302013423, 0.1644295302013423, 0.15604026845637584, 0.15604026845637584, 0.15604026845637584, 0.16275167785234898, 0.16275167785234898, 0.16275167785234898, 0.16275167785234898, 0.1610738255033557, 0.15100671140939598, 0.15100671140939598, 0.1493288590604027, 0.1493288590604027], \"logloss\": [0.5866957888407195, 0.5285233675233469, 0.49395521880196247, 0.4722632337986623, 0.45865575974219597, 0.44925905019044876, 0.4378713680018715, 0.4313744863732749, 0.42457179500152603, 0.41821664973043354, 0.4120565252503593, 0.4076082871339265, 0.4043336418776104, 0.4007675454470535, 0.39713464293553924, 0.3947070506995156, 0.38985030535583526, 0.3872961233176241, 0.38589116496552756, 0.38316481206691105, 0.38207760941387225, 0.3797303170415779, 0.3776923764103261, 0.3756995289305213, 0.3740687674417742], \"auc\": [0.821953062284554, 0.8505099872503188, 0.8537977522784153, 0.8527647919913113, 0.8559167965245313, 0.8549605704301837, 0.8673383859847948, 0.8725799216130707, 0.877361052084809, 0.886840676205317, 0.8902996175095622, 0.8903114227699863, 0.8914447277706946, 0.8959071162109836, 0.8959602398828919, 0.897837276290315, 0.901248996552864, 0.9007177598337819, 0.9023409831420881, 0.9023763989233603, 0.9033975539500402, 0.9066203900458044, 0.9076415450724843, 0.9093592104641829, 0.9102505076261982]}, \"validation_1\": {\"error\": [0.2, 0.2, 0.19661016949152543, 0.2033898305084746, 0.19661016949152543, 0.2, 0.17966101694915254, 0.17966101694915254, 0.17966101694915254, 0.17288135593220338, 0.16610169491525423, 0.16610169491525423, 0.1694915254237288, 0.1694915254237288, 0.1694915254237288, 0.1694915254237288, 0.16610169491525423, 0.16610169491525423, 0.16610169491525423, 0.16610169491525423, 0.16610169491525423, 0.15932203389830507, 0.15932203389830507, 0.15932203389830507, 0.15932203389830507], \"logloss\": [0.5827612640494008, 0.5193166405467664, 0.48498952631223, 0.46442846453796, 0.45217907933865564, 0.44111144143646047, 0.432088672180297, 0.42493405920469157, 0.41962996185836143, 0.41326501215413464, 0.41076176401417136, 0.4077224151310274, 0.4052583728553885, 0.4028507774285341, 0.4017576841100798, 0.40018549320303787, 0.400700489103289, 0.39826837440921087, 0.3970427585229025, 0.39530936439158554, 0.39535755302946446, 0.39622410268096603, 0.395773144344152, 0.3961034670977269, 0.39585183467400276], \"auc\": [0.8029807882749059, 0.8421964745494157, 0.8432857991681522, 0.8378391760744702, 0.8397207367795603, 0.839126559714795, 0.847568825510002, 0.8613091701326996, 0.8632402455931868, 0.872499504852446, 0.8667062784709844, 0.8722271736977619, 0.8728708655179244, 0.877277678748267, 0.8776985541691424, 0.8767577738165974, 0.8749752426223014, 0.8768815607050902, 0.8778718558130323, 0.8786888492770846, 0.8778470984353337, 0.8752970885323826, 0.8753218459100812, 0.8740344622697563, 0.8724499900970489]}}, \"_estimator_type\": \"classifier\"}"},"feature_names":["Pclass","Age","SibSp","Parch","Fare","ParchSibSp_over_AgeClass","ParchClass","ParchSib","AgeClass","Sex"],"feature_types":["int","float","int","int","float","float","float","float","float","int"],"gradient_booster":{"model":{"gbtree_model_param":{"num_parallel_tree":"1","num_trees":"25","size_leaf_vector":"0"},"tree_info":[0,0,0,0,0,0,0,0,0,0,0,0,0,0,0,0,0,0,0,0,0,0,0,0,0],"trees":[{"base_weights":[-4.2666668E-1,9.122807E-1,-1.2340425E0,1.7310925E0,1.7699115E-2,4.347826E-1,-1.3277311E0],"categories":[],"categories_nodes":[],"categories_segments":[],"categories_sizes":[],"default_left":[1,1,0,0,0,0,0],"id":0,"left_children":[1,3,5,-1,-1,-1,-1],"loss_changes":[1.6328087E2,4.1721516E1,1.5274155E1,0E0,0E0,0E0,0E0],"parents":[2147483647,0,0,1,1,2,2],"right_children":[2,4,6,-1,-1,-1,-1],"split_conditions":[5E-1,2.5E0,8.5E0,5.1932776E-1,5.3097345E-3,1.3043478E-1,-3.9831936E-1],"split_indices":[9,0,1,0,0,0,0],"split_type":[0,0,0,0,0,0,0],"sum_hessian":[1.49E2,5.6E1,9.3E1,2.875E1,2.725E1,4.75E0,8.825E1],"tree_param":{"num_deleted":"0","num_feature":"10","num_nodes":"7","size_leaf_vector":"0"}},{"base_weights":[-3.086967E-1,6.755142E-1,-9.045438E-1,1.3226565E0,1.2577568E-2,-2.3177798E-1,-1.1032649E0],"categories":[],"categories_nodes":[],"categories_segments":[],"categories_sizes":[],"default_left":[1,1,1,0,0,0,0],"id":1,"left_children":[1,3,5,-1,-1,-1,-1],"loss_changes":[8.5477715E1,2.364147E1,1.1852837E1,0E0,0E0,0E0,0E0],"parents":[2147483647,0,0,1,1,2,2],"right_children":[2,4,6,-1,-1,-1,-1],"split_conditions":[5E-1,2.5E0,1.5E0,3.9679697E-1,3.7732706E-3,-6.95334E-2,-3.309795E-1],"split_indices":[9,0,0,0,0,0,0],"split_type":[0,0,0,0,0,0,0],"sum_hessian":[1.4371523E2,5.414525E1,8.956997E1,2.6895441E1,2.724981E1,2.0918203E1,6.865177E1],"tree_param":{"num_deleted":"0","num_feature":"10","num_nodes":"7","size_leaf_vector":"0"}},{"base_weights":[-2.3258464E-1,5.242317E-1,-6.9210696E-1,1.0976655E0,8.937784E-3,8.897702E-1,-7.6054466E-1],"categories":[],"categories_nodes":[],"categories_segments":[],"categories_sizes":[],"default_left":[1,1,0,0,0,0,0],"id":2,"left_children":[1,3,5,-1,-1,-1,-1],"loss_changes":[4.7450066E1,1.527292E1,9.843697E0,0E0,0E0,0E0,0E0],"parents":[2147483647,0,0,1,1,2,2],"right_children":[2,4,6,-1,-1,-1,-1],"split_conditions":[5E-1,2.5E0,3.5E0,3.292997E-1,2.6813352E-3,2.669311E-1,-2.281634E-1],"split_indices":[9,0,1,0,0,0,0],"split_type":[0,0,0,0,0,0,0],"sum_hessian":[1.343961E2,5.0720493E1,8.3675606E1,2.3471056E1,2.7249437E1,2.9723027E0,8.070331E1],"tree_param":{"num_deleted":"0","num_feature":"10","num_nodes":"7","size_leaf_vector":"0"}},{"base_weights":[-1.7387383E-1,4.1241512E-1,-5.327325E-1,9.400769E-1,6.3514737E-3,-7.0146865E-1,1.6963E-1],"categories":[],"categories_nodes":[],"categories_segments":[],"categories_sizes":[],"default_left":[1,1,1,0,0,0,0],"id":3,"left_children":[1,3,5,-1,-1,-1,-1],"loss_changes":[2.6620083E1,1.0322983E1,9.395494E0,0E0,0E0,0E0,0E0],"parents":[2147483647,0,0,1,1,2,2],"right_children":[2,4,6,-1,-1,-1,-1],"split_conditions":[5E-1,2.5E0,9.225774E-1,2.8202307E-1,1.9054422E-3,-2.104406E-1,5.0889004E-2],"split_indices":[9,0,8,0,0,0,0],"split_type":[0,0,0,0,0,0,0],"sum_hessian":[1.2448014E2,4.720661E1,7.727353E1,1.9957556E1,2.7249058E1,6.2306286E1,1.4967243E1],"tree_param":{"num_deleted":"0","num_feature":"10","num_nodes":"7","size_leaf_vector":"0"}},{"base_weights":[-1.3068533E-1,3.245904E-1,-4.104209E-1,8.128505E-1,4.5137033E-3,7.0910406E-1,-4.9558622E-1],"categories":[],"categories_nodes":[],"categories_segments":[],"categories_sizes":[],"default_left":[1,1,0,0,0,0,0],"id":4,"left_children":[1,3,5,-1,-1,-1,-1],"loss_changes":[1.5039059E1,7.0449424E0,7.3056517E0,0E0,0E0,0E0,0E0],"parents":[2147483647,0,0,1,1,2,2],"right_children":[2,4,6,-1,-1,-1,-1],"split_conditions":[5E-1,2.5E0,8.5E0,2.4385515E-1,1.354111E-3,2.1273123E-1,-1.4867587E-1],"split_indices":[9,0,1,0,0,0,0],"split_type":[0,0,0,0,0,0,0],"sum_hessian":[1.1604E2,4.4102264E1,7.1937744E1,1.6853537E1,2.7248726E1,4.5676994E0,6.737004E1],"tree_param":{"num_deleted":"0","num_feature":"10","num_nodes":"7","size_leaf_vector":"0"}},{"base_weights":[-9.521113E-2,4.1772425E-1,-2.6114294E-1,6.9334364E-1,-1.1036859E-1,9.749149E-2,-5.027176E-1],"categories":[],"categories_nodes":[],"categories_segments":[],"categories_sizes":[],"default_left":[1,0,1,0,0,0,0],"id":5,"left_children":[1,3,5,-1,-1,-1,-1],"loss_changes":[9.450084E0,4.0370173E0,7.286581E0,0E0,0E0,0E0,0E0],"parents":[2147483647,0,0,1,1,2,2],"right_children":[2,4,6,-1,-1,-1,-1],"split_conditions":[1.5E0,4.95E1,5E-1,2.080031E-1,-3.3110578E-2,2.9247448E-2,-1.508153E-1],"split_indices":[0,1,9,0,0,0,0],"split_type":[0,0,0,0,0,0,0],"sum_hessian":[1.08749084E2,2.6210047E1,8.253904E1,1.701615E1,9.193897E0,3.346071E1,4.907833E1],"tree_param":{"num_deleted":"0","num_feature":"10","num_nodes":"7","size_leaf_vector":"0"}},{"base_weights":[-7.1513824E-2,6.525127E-3,-1.0894389E0,1.3530422E0,-9.100013E-2,-1.391408E0,3.6054748E-1],"categories":[],"categories_nodes":[],"categories_segments":[],"categories_sizes":[],"default_left":[1,0,1,0,0,0,0],"id":6,"left_children":[1,3,5,-1,-1,-1,-1],"loss_changes":[8.3897915E0,1.312443E1,3.7942877E0,0E0,0E0,0E0,0E0],"parents":[2147483647,0,0,1,1,2,2],"right_children":[2,4,6,-1,-1,-1,-1],"split_conditions":[2.5E0,8.5E0,1.25E1,4.059127E-1,-2.7300041E-2,-4.174224E-1,1.0816425E-1],"split_indices":[2,1,1,0,0,0,0],"split_type":[0,0,0,0,0,0,0],"sum_hessian":[1.04525116E2,9.8005165E1,6.51995E0,5.7494593E0,9.225571E1,5.4296E0,1.0903504E0],"tree_param":{"num_deleted":"0","num_feature":"10","num_nodes":"7","size_leaf_vector":"0"}},{"base_weights":[-5.032414E-2,2.351063E-1,-2.3456818E-1,6.543945E-1,1.3630168E-2,-7.06476E-1,-5.724714E-2],"categories":[],"categories_nodes":[],"categories_segments":[],"categories_sizes":[],"default_left":[1,1,1,0,0,0,0],"id":7,"left_children":[1,3,5,-1,-1,-1,-1],"loss_changes":[5.5272098E0,3.8279302E0,5.292934E0,0E0,0E0,0E0,0E0],"parents":[2147483647,0,0,1,1,2,2],"right_children":[2,4,6,-1,-1,-1,-1],"split_conditions":[5E-1,2.5E0,7.9104004E0,1.9631836E-1,4.0890505E-3,-2.119428E-1,-1.7174143E-2],"split_indices":[9,0,4,0,0,0,0],"split_type":[0,0,0,0,0,0,0],"sum_hessian":[1.0305362E2,4.031761E1,6.273601E1,1.32599E1,2.7057713E1,1.6319761E1,4.641625E1],"tree_param":{"num_deleted":"0","num_feature":"10","num_nodes":"7","size_leaf_vector":"0"}},{"base_weights":[-3.748409E-2,2.5605036E-2,-8.764676E-1,1.0852185E0,-4.9344555E-2,-1.133216E0,2.9274973E-1],"categories":[],"categories_nodes":[],"categories_segments":[],"categories_sizes":[],"default_left":[1,0,1,0,0,0,0],"id":8,"left_children":[1,3,5,-1,-1,-1,-1],"loss_changes":[5.3028593E0,7.499381E0,2.4347506E0,0E0,0E0,0E0,0E0],"parents":[2147483647,0,0,1,1,2,2],"right_children":[2,4,6,-1,-1,-1,-1],"split_conditions":[2.5E0,8.5E0,1.25E1,3.2556558E-1,-1.4803367E-2,-3.399648E-1,8.7824926E-2],"split_indices":[2,1,1,0,0,0,0],"split_type":[0,0,0,0,0,0,0],"sum_hessian":[9.876089E1,9.275543E1,6.0054584E0,5.237005E0,8.7518425E1,4.9494085E0,1.05605E0],"tree_param":{"num_deleted":"0","num_feature":"10","num_nodes":"7","size_leaf_vector":"0"}},{"base_weights":[-2.6245154E-2,3.1553695E-1,-1.4491858E-1,-7.74191E-1,4.0672415E-1,4.515131E-2,-6.8762755E-1],"categories":[],"categories_nodes":[],"categories_segments":[],"categories_sizes":[],"default_left":[1,1,1,0,0,0,0],"id":9,"left_children":[1,3,5,-1,-1,-1,-1],"loss_changes":[4.0350556E0,2.8650794E0,7.632497E0,0E0,0E0,0E0,0E0],"parents":[2147483647,0,0,1,1,2,2],"right_children":[2,4,6,-1,-1,-1,-1],"split_conditions":[1.5E0,2.6141651E1,8.355856E-1,-2.3225732E-1,1.2201725E-1,1.3545393E-2,-2.0628828E-1],"split_indices":[0,4,8,0,0,0,0],"split_type":[0,0,0,0,0,0,0],"sum_hessian":[9.735512E1,2.4663841E1,7.269128E1,1.3261101E0,2.3337732E1,5.4515446E1,1.8175833E1],"tree_param":{"num_deleted":"0","num_feature":"10","num_nodes":"7","size_leaf_vector":"0"}},{"base_weights":[-2.3084382E-2,4.924409E-2,-5.1282525E-1,8.634062E-1,-4.374631E-2,2.3044126E-1,-9.1591674E-1],"categories":[],"categories_nodes":[],"categories_segments":[],"categories_sizes":[],"default_left":[1,0,1,0,0,0,0],"id":10,"left_children":[1,3,5,-1,-1,-1,-1],"loss_changes":[3.4777255E0,6.5363874E0,3.9950135E0,0E0,0E0,0E0,0E0],"parents":[2147483647,0,0,1,1,2,2],"right_children":[2,4,6,-1,-1,-1,-1],"split_conditions":[2.3333335E0,1.65E1,2.5E0,2.5902188E-1,-1.3123894E-2,6.913238E-2,-2.7477503E-1],"split_indices":[5,1,0,0,0,0,0],"split_type":[0,0,0,0,0,0,0],"sum_hessian":[9.64663E1,8.483649E1,1.1629817E1,7.8471518E0,7.6989334E1,4.2399755E0,7.389841E0],"tree_param":{"num_deleted":"0","num_feature":"10","num_nodes":"7","size_leaf_vector":"0"}},{"base_weights":[-1.6547328E-2,2.2025786E-1,-1.7085847E-1,7.313274E-1,2.7272012E-2,-5.5493665E-1,-4.2235564E-2],"categories":[],"categories_nodes":[],"categories_segments":[],"categories_sizes":[],"default_left":[1,1,1,0,0,0,0],"id":11,"left_children":[1,3,5,-1,-1,-1,-1],"loss_changes":[3.549041E0,3.7624354E0,2.8785758E0,0E0,0E0,0E0,0E0],"parents":[2147483647,0,0,1,1,2,2],"right_children":[2,4,6,-1,-1,-1,-1],"split_conditions":[5E-1,8.0396E0,7.9104004E0,2.1939823E-1,8.181604E-3,-1.66481E-1,-1.267067E-2],"split_indices":[9,4,4,0,0,0,0],"split_type":[0,0,0,0,0,0,0],"sum_hessian":[9.509323E1,3.73495E1,5.7743736E1,9.473094E0,2.7876404E1,1.3654844E1,4.408889E1],"tree_param":{"num_deleted":"0","num_feature":"10","num_nodes":"7","size_leaf_vector":"0"}},{"base_weights":[-1.256958E-2,3.0837372E-2,-6.483347E-1,8.5061723E-1,-1.2281348E-2,-8.88261E-1,2.5703943E-1],"categories":[],"categories_nodes":[],"categories_segments":[],"categories_sizes":[],"default_left":[1,0,1,0,0,0,0],"id":12,"left_children":[1,3,5,-1,-1,-1,-1],"loss_changes":[2.6165075E0,3.1574452E0,1.5444126E0,0E0,0E0,0E0,0E0],"parents":[2147483647,0,0,1,1,2,2],"right_children":[2,4,6,-1,-1,-1,-1],"split_conditions":[2.5E0,2.916667E-1,1.25E1,2.551852E-1,-3.6844045E-3,-2.6647833E-1,7.711183E-2],"split_indices":[2,8,1,0,0,0,0],"split_type":[0,0,0,0,0,0,0],"sum_hessian":[9.308811E1,8.802939E1,5.0587234E0,3.4629982E0,8.456639E1,4.0139256E0,1.0447981E0],"tree_param":{"num_deleted":"0","num_feature":"10","num_nodes":"7","size_leaf_vector":"0"}},{"base_weights":[-8.420842E-3,1.726492E-1,-1.2926257E-1,-9.1048166E-2,5.0310814E-1,1.922651E-1,-2.8362516E-1],"categories":[],"categories_nodes":[],"categories_segments":[],"categories_sizes":[],"default_left":[1,0,0,0,0,0,0],"id":13,"left_children":[1,3,5,-1,-1,-1,-1],"loss_changes":[2.0586662E0,3.3291197E0,2.8531425E0,0E0,0E0,0E0,0E0],"parents":[2147483647,0,0,1,1,2,2],"right_children":[2,4,6,-1,-1,-1,-1],"split_conditions":[5E-1,8.840336E-1,8.309524E-1,-2.731445E-2,1.5093245E-1,5.767953E-2,-8.508755E-2],"split_indices":[9,8,8,0,0,0,0],"split_type":[0,0,0,0,0,0,0],"sum_hessian":[9.20655E1,3.667809E1,5.5387413E1,2.080263E1,1.587546E1,1.7886145E1,3.7501266E1],"tree_param":{"num_deleted":"0","num_feature":"10","num_nodes":"7","size_leaf_vector":"0"}},{"base_weights":[-5.1523643E-3,2.7876467E-1,-1.0583174E-1,7.5107473E-1,6.6654414E-2,3.8151727E-3,-5.5362415E-1],"categories":[],"categories_nodes":[],"categories_segments":[],"categories_sizes":[],"default_left":[1,1,1,0,0,0,0],"id":14,"left_children":[1,3,5,-1,-1,-1,-1],"loss_changes":[2.6330037E0,2.366142E0,3.3390026E0,0E0,0E0,0E0,0E0],"parents":[2147483647,0,0,1,1,2,2],"right_children":[2,4,6,-1,-1,-1,-1],"split_conditions":[1.5E0,3.05979E1,3.225E1,2.2532243E-1,1.9996325E-2,1.1445519E-3,-1.6608725E-1],"split_indices":[0,4,1,0,0,0,0],"split_type":[0,0,0,0,0,0,0],"sum_hessian":[9.00806E1,2.311819E1,6.69624E1,6.377135E0,1.6741056E1,5.4587524E1,1.2374878E1],"tree_param":{"num_deleted":"0","num_feature":"10","num_nodes":"7","size_leaf_vector":"0"}},{"base_weights":[-4.0088072E-3,3.1731367E-2,-5.545454E-1,-1.0355217E-1,2.4086988E-1,-7.9112846E-1,2.4406876E-1],"categories":[],"categories_nodes":[],"categories_segments":[],"categories_sizes":[],"default_left":[1,1,1,0,0,0,0],"id":15,"left_children":[1,3,5,-1,-1,-1,-1],"loss_changes":[1.8058705E0,2.4663517E0,1.2501212E0,0E0,0E0,0E0,0E0],"parents":[2147483647,0,0,1,1,2,2],"right_children":[2,4,6,-1,-1,-1,-1],"split_conditions":[2.5E0,2.201875E1,1.25E1,-3.1065652E-2,7.226097E-2,-2.3733854E-1,7.322063E-2],"split_indices":[2,4,1,0,0,0,0],"split_type":[0,0,0,0,0,0,0],"sum_hessian":[8.9884796E1,8.529022E1,4.5945754E0,5.209613E1,3.3194088E1,3.5517664E0,1.0428092E0],"tree_param":{"num_deleted":"0","num_feature":"10","num_nodes":"7","size_leaf_vector":"0"}},{"base_weights":[-4.961179E-3,1.1981194E-1,-1.6728845E-1,2.4539231E-1,-5.640297E-1,4.1650555E-1,-3.6890158E-1],"categories":[],"categories_nodes":[],"categories_segments":[],"categories_sizes":[],"default_left":[0,0,0,0,0,0,0],"id":16,"left_children":[1,3,5,-1,-1,-1,-1],"loss_changes":[1.8446313E0,4.562534E0,4.810827E0,0E0,0E0,0E0,0E0],"parents":[2147483647,0,0,1,1,2,2],"right_children":[2,4,6,-1,-1,-1,-1],"split_conditions":[3.65E1,2.3333335E0,1.6666667E-1,7.36177E-2,-1.6920891E-1,1.2495167E-1,-1.1067048E-1],"split_indices":[1,5,7,0,0,0,0],"split_type":[0,0,0,0,0,0,0],"sum_hessian":[8.908497E1,5.051695E1,3.856802E1,4.3221016E1,7.295932E0,9.626761E0,2.894126E1],"tree_param":{"num_deleted":"0","num_feature":"10","num_nodes":"7","size_leaf_vector":"0"}},{"base_weights":[-5.6433957E-3,1.5889043E-1,-1.14053324E-1,5.4319656E-1,4.457555E-3,5.500991E-1,-1.6946599E-1],"categories":[],"categories_nodes":[],"categories_segments":[],"categories_sizes":[],"default_left":[1,1,0,0,0,0,0],"id":17,"left_children":[1,3,5,-1,-1,-1,-1],"loss_changes":[1.6153357E0,2.1332014E0,2.1011882E0,0E0,0E0,0E0,0E0],"parents":[2147483647,0,0,1,1,2,2],"right_children":[2,4,6,-1,-1,-1,-1],"split_conditions":[5E-1,8.0396E0,1.3E1,1.6295898E-1,1.3372665E-3,1.6502973E-1,-5.08398E-2],"split_indices":[9,4,1,0,0,0,0],"split_type":[0,0,0,0,0,0,0],"sum_hessian":[8.854447E1,3.4983837E1,5.356064E1,9.306716E0,2.5677122E1,3.437147E0,5.012349E1],"tree_param":{"num_deleted":"0","num_feature":"10","num_nodes":"7","size_leaf_vector":"0"}},{"base_weights":[-1.0323777E-3,-6.3236916E-1,2.4679257E-2,-7.915455E-1,-1.6662237E-1,7.125092E-1,-1.0062276E-3],"categories":[],"categories_nodes":[],"categories_segments":[],"categories_sizes":[],"default_left":[1,1,1,0,0,0,0],"id":18,"left_children":[1,3,5,-1,-1,-1,-1],"loss_changes":[1.441548E0,1.2573767E-1,1.5089465E0,0E0,0E0,0E0,0E0],"parents":[2147483647,0,0,1,1,2,2],"right_children":[2,4,6,-1,-1,-1,-1],"split_conditions":[7.13335E0,2.45E1,7.2396E0,-2.3746367E-1,-4.9986713E-2,2.1375278E-1,-3.0186828E-4],"split_indices":[4,1,4,0,0,0,0],"split_type":[0,0,0,0,0,0,0],"sum_hessian":[8.6843765E1,2.475065E0,8.43687E1,1.3232903E0,1.1517745E0,2.0745552E0,8.229414E1],"tree_param":{"num_deleted":"0","num_feature":"10","num_nodes":"7","size_leaf_vector":"0"}},{"base_weights":[-1.9883642E-3,-6.505925E-2,2.2989945E-1,-4.6629803E-3,-4.4391224E-1,6.594556E-1,-1.6816811E-1],"categories":[],"categories_nodes":[],"categories_segments":[],"categories_sizes":[],"default_left":[1,1,0,0,0,0,0],"id":19,"left_children":[1,3,5,-1,-1,-1,-1],"loss_changes":[1.2985948E0,1.5945864E0,3.3576913E0,0E0,0E0,0E0,0E0],"parents":[2147483647,0,0,1,1,2,2],"right_children":[2,4,6,-1,-1,-1,-1],"split_conditions":[9.225774E-1,3.35E1,4.35E1,-1.3988941E-3,-1.3317367E-1,1.9783668E-1,-5.0450437E-2],"split_indices":[8,1,1,0,0,0,0],"split_type":[0,0,0,0,0,0,0],"sum_hessian":[8.6767876E1,6.877994E1,1.7987936E1,6.019589E1,8.584046E0,8.335945E0,9.651991E0],"tree_param":{"num_deleted":"0","num_feature":"10","num_nodes":"7","size_leaf_vector":"0"}},{"base_weights":[-1.6299662E-3,-5.7973677E-1,2.0664167E-2,-7.1849704E-1,-1.666343E-1,2.3724458E-1,-4.541549E-2],"categories":[],"categories_nodes":[],"categories_segments":[],"categories_sizes":[],"default_left":[1,1,1,0,0,0,0],"id":20,"left_children":[1,3,5,-1,-1,-1,-1],"loss_changes":[1.1364931E0,6.795776E-2,1.2269121E0,0E0,0E0,0E0,0E0],"parents":[2147483647,0,0,1,1,2,2],"right_children":[2,4,6,-1,-1,-1,-1],"split_conditions":[7.13335E0,2.45E1,8.0396E0,-2.1554913E-1,-4.9990293E-2,7.117338E-2,-1.3624648E-2],"split_indices":[4,1,4,0,0,0,0],"split_type":[0,0,0,0,0,0,0],"sum_hessian":[8.625009E1,2.2741942E0,8.39759E1,1.1489828E0,1.1252115E0,1.9026154E1,6.4949745E1],"tree_param":{"num_deleted":"0","num_feature":"10","num_nodes":"7","size_leaf_vector":"0"}},{"base_weights":[-3.8911358E-3,1.3601752E-1,-1.056666E-1,5.816298E-1,8.598876E-3,1.3180532E-1,-2.7079594E-1],"categories":[],"categories_nodes":[],"categories_segments":[],"categories_sizes":[],"default_left":[1,1,1,0,0,0,0],"id":21,"left_children":[1,3,5,-1,-1,-1,-1],"loss_changes":[1.2578464E0,2.1078405E0,2.0401187E0,0E0,0E0,0E0,0E0],"parents":[2147483647,0,0,1,1,2,2],"right_children":[2,4,6,-1,-1,-1,-1],"split_conditions":[2.5E0,1.85E1,8.0396E0,1.7448895E-1,2.579663E-3,3.9541595E-2,-8.1238784E-2],"split_indices":[0,1,4,0,0,0,0],"split_type":[0,0,0,0,0,0,0],"sum_hessian":[8.6327095E1,3.621147E1,5.011562E1,7.2593036E0,2.895217E1,2.0637995E1,2.9477623E1],"tree_param":{"num_deleted":"0","num_feature":"10","num_nodes":"7","size_leaf_vector":"0"}},{"base_weights":[-1.5900166E-3,2.1255676E-2,-5.9420687E-1,-2.1504732E-2,8.68792E-1,-1.1756143E-1,-8.0749923E-1],"categories":[],"categories_nodes":[],"categories_segments":[],"categories_sizes":[],"default_left":[1,1,1,0,0,0,0],"id":22,"left_children":[1,3,5,-1,-1,-1,-1],"loss_changes":[1.1878886E0,3.08287E0,2.3616886E-1,0E0,0E0,0E0,0E0],"parents":[2147483647,0,0,1,1,2,2],"right_children":[2,4,6,-1,-1,-1,-1],"split_conditions":[1.490354E2,8.49875E1,1.6666667E-1,-6.45142E-3,2.606376E-1,-3.526843E-2,-2.4224977E-1],"split_indices":[4,4,7,0,0,0,0],"split_type":[0,0,0,0,0,0,0],"sum_hessian":[8.580706E1,8.3550285E1,2.2567751E0,8.046523E1,3.0850532E0,1.1772175E0,1.0795577E0],"tree_param":{"num_deleted":"0","num_feature":"10","num_nodes":"7","size_leaf_vector":"0"}},{"base_weights":[-1.1137999E-3,1.3626844E-1,-9.208257E-2,4.558522E-1,-2.4936865E-3,-2.531516E-1,1.3341174E-1],"categories":[],"categories_nodes":[],"categories_segments":[],"categories_sizes":[],"default_left":[1,1,1,0,0,0,0],"id":23,"left_children":[1,3,5,-1,-1,-1,-1],"loss_changes":[1.0945112E0,1.5484667E0,1.947202E0,0E0,0E0,0E0,0E0],"parents":[2147483647,0,0,1,1,2,2],"right_children":[2,4,6,-1,-1,-1,-1],"split_conditions":[5E-1,2.5E0,2.875E1,1.3675568E-1,-7.48106E-4,-7.594548E-2,4.002352E-2],"split_indices":[9,0,1,0,0,0,0],"split_type":[0,0,0,0,0,0,0],"sum_hessian":[8.557442E1,3.389212E1,5.1682297E1,9.568871E0,2.432325E1,3.007633E1,2.1605967E1],"tree_param":{"num_deleted":"0","num_feature":"10","num_nodes":"7","size_leaf_vector":"0"}},{"base_weights":[5.311945E-4,4.6828112E-1,-2.7826743E-2,6.768225E-1,-1.3951099E-1,-7.855556E-1,7.2817126E-4],"categories":[],"categories_nodes":[],"categories_segments":[],"categories_sizes":[],"default_left":[0,1,0,0,0,0,0],"id":24,"left_children":[1,3,5,-1,-1,-1,-1],"loss_changes":[1.1378114E0,7.1589696E-1,1.7508587E0,0E0,0E0,0E0,0E0],"parents":[2147483647,0,0,1,1,2,2],"right_children":[2,4,6,-1,-1,-1,-1],"split_conditions":[2.916667E-1,2.5E0,5.8571434E-1,2.0304675E-1,-4.1853298E-2,-2.3566669E-1,2.1845139E-4],"split_indices":[8,2,8,0,0,0,0],"split_type":[0,0,0,0,0,0,0],"sum_hessian":[8.379681E1,3.9031463E0,7.989366E1,2.8214831E0,1.0816631E0,1.9386845E0,7.795498E1],"tree_param":{"num_deleted":"0","num_feature":"10","num_nodes":"7","size_leaf_vector":"0"}}]},"name":"gbtree"},"learner_model_param":{"base_score":"5E-1","num_class":"0","num_feature":"10","num_target":"1"},"objective":{"name":"binary:logistic","reg_loss_param":{"scale_pos_weight":"1"}}},"version":[1,6,1]}